{
  "features_info":
    {
      "float_features":
        [
          {
            "borders":
              [
                0.5,
                7.5,
                36.5,
                54.5,
                97.5,
                121.5,
                145,
                165.5,
                195.5,
                237,
                278,
                321.5,
                360.5,
                403.5,
                466.5,
                562.5,
                611.5,
                676.5,
                740,
                889.5,
                963,
                1035.5,
                1120,
                1489,
                1633.5,
                1717.5,
                2125,
                2245,
                2615,
                2729.5,
                3033.5,
                3746,
                3896,
                4057,
                4223.5,
                4512,
                4731,
                4986.5,
                5258.5,
                5838.5,
                6020.5,
                6219.5,
                6539,
                7333,
                8027,
                8578,
                9735.5,
                10368,
                10669,
                11217,
                11639,
                12570,
                14139,
                15594,
                16692,
                17465.5,
                18282.5,
                18895.5,
                22774.5,
                25763.5,
                27846,
                30415,
                41336.5,
                43767.5,
                45873,
                48783,
                51746,
                54088,
                56908,
                64816.5,
                72904.5,
                90246.5,
                95027,
                103590,
                179165.5
              ],
            "feature_index":0,
            "flat_feature_index":0,
            "has_nans":false,
            "nan_value_treatment":"AsIs"
          },
          {
            "borders":
              [
                0.5
              ],
            "feature_index":1,
            "flat_feature_index":1,
            "has_nans":false,
            "nan_value_treatment":"AsIs"
          },
          {
            "borders":
              [
                0.5,
                27138,
                452235,
                996273,
                1003141,
                1999961,
                3000006,
                4561553,
                8681001,
                9999419,
                14999980,
                16795608,
                19982768,
                21105000,
                24668922,
                25100000,
                29999774,
                31815156,
                34999996,
                40012184,
                45972840,
                49999992,
                52015000,
                59999408,
                64996864,
                80261024,
                84048000,
                99990032,
                99997984,
                99999680,
                100000000,
                105110000,
                132308720,
                150000000,
                199999872,
                201298384,
                244889488,
                253593600,
                299991584,
                299999872,
                349999872,
                399997632,
                449990656,
                499989280,
                500000000,
                619205056,
                749934528,
                859218304,
                933309312,
                999890560,
                999973376,
                999990912,
                999994624,
                999999488,
                999999872,
                1000000000,
                1557531136,
                1979446272,
                1999988992,
                1999998720,
                2000000000,
                2022711808,
                2123721344,
                2599999488,
                2999997952,
                3339079680,
                4999969792,
                4999999488,
                5888837632,
                6999999488,
                9999954944,
                9999992832,
                9999996928,
                9999998976,
                10009997312,
                12000000000,
                20999938048,
                29999992832,
                30499991552,
                49999974400,
                53797998592,
                84356317184,
                99999989760,
                911168634880,
                4999999913984
              ],
            "feature_index":2,
            "flat_feature_index":2,
            "has_nans":false,
            "nan_value_treatment":"AsIs"
          },
          {
            "borders":
              [
                -3.4028234663852886e+38,
                0.91666662693023682,
                1.0002248287200928,
                1.0483899116516113,
                1.0843362808227539,
                1.2003927230834961,
                1.2356350421905518,
                1.252198338508606,
                1.2767806053161621,
                1.295759916305542,
                1.3216631412506104,
                1.3795411586761475,
                1.4011408090591431,
                1.4957582950592041,
                1.5129727125167847,
                1.5449020862579346,
                1.6399557590484619,
                1.7271714210510254,
                1.7538557052612305,
                1.8570225238800049,
                1.8845539093017578,
                1.9512609243392944,
                1.9876487255096436,
                2.001744270324707,
                2.2227437496185303,
                2.2469801902770996,
                2.3271551132202148,
                2.4145913124084473,
                2.5006937980651855,
                2.549562931060791,
                2.7398672103881836,
                2.8016898632049561,
                3.1191122531890869,
                3.2341964244842529,
                3.3389251232147217,
                3.4198541641235352,
                3.6577143669128418,
                3.7315258979797363,
                4.4402284622192383,
                4.6998205184936523,
                4.7907061576843262,
                5.0350437164306641,
                5.1331825256347656,
                5.2214479446411133,
                5.2979469299316406,
                5.4518241882324219,
                5.7488546371459961,
                5.8506546020507813,
                7.4203734397888184,
                7.6115970611572266,
                9.3805618286132813,
                9.6147794723510742,
                10.265313148498535,
                10.727294921875,
                12.46272087097168,
                13.726112365722656,
                14.584539413452148,
                16.805946350097656,
                19.603462219238281,
                22.131465911865234,
                40.330390930175781,
                60.825859069824219
              ],
            "feature_index":3,
            "flat_feature_index":3,
            "has_nans":true,
            "nan_value_treatment":"AsFalse"
          },
          {
            "borders":
              [
                4.9999999696126451e-09,
                1.7750001006788807e-06,
                7.3299997893627733e-06,
                7.3939998401328921e-05,
                0.00011603500024648383,
                0.00016265499289147556,
                0.00022293499205261469,
                0.00032965000718832016,
                0.00046527999802492559,
                0.00063983502332121134,
                0.00078780495095998049,
                0.0010009499965235591,
                0.0012175000738352537,
                0.0015160399489104748,
                0.0017954050563275814,
                0.0020551849156618118,
                0.0024969149380922318,
                0.0029911999590694904,
                0.0034291348420083523,
                0.0040346551686525345,
                0.0045161950401961803,
                0.005029620137065649,
                0.0056241853162646294,
                0.0064188102260231972,
                0.0073299100622534752,
                0.0080410949885845184,
                0.0088867694139480591,
                0.0097475294023752213,
                0.010722924955189228,
                0.011709234677255154,
                0.01392088457942009,
                0.014923470094799995,
                0.0165985357016325,
                0.017457328736782074,
                0.021419335156679153,
                0.023881834000349045,
                0.027429945766925812,
                0.037190832197666168,
                0.039138644933700562,
                0.042187996208667755,
                0.043112240731716156,
                0.04483843594789505,
                0.050163552165031433,
                0.054671928286552429,
                0.058752939105033875,
                0.066308140754699707,
                0.073727145791053772,
                0.087638676166534424,
                0.099945291876792908,
                0.11546896398067474,
                0.12473481893539429,
                0.14312443137168884,
                0.17411705851554871,
                0.20257516205310822,
                0.2136741429567337,
                0.22571896016597748,
                0.23804278671741486,
                0.2636641263961792,
                0.29005774855613708,
                0.31909245252609253,
                0.33892688155174255,
                0.36525130271911621,
                0.3952491283416748,
                0.49092113971710205,
                0.54213166236877441,
                0.7258945107460022,
                0.89029401540756226,
                56.814491271972656,
                205,
                1244.6728515625,
                11323.80078125,
                12450.9912109375,
                14441.751953125,
                17243.33203125,
                19008.34375,
                21048.48828125,
                23430.484375,
                28125.92578125,
                30514.990234375,
                32675.4765625,
                41410.3125,
                42369.984375,
                43524.984375,
                43564.3671875,
                43708.9921875,
                47042.49609375
              ],
            "feature_index":4,
            "flat_feature_index":4,
            "has_nans":false,
            "nan_value_treatment":"AsIs"
          },
          {
            "borders":
              [
                1.4999999464748726e-08,
                3.7500001326407073e-07,
                8.0500001331529347e-07,
                5.9449998843774665e-06,
                1.6000001778593287e-05,
                0.00016761000733822584,
                0.00018919500871561468,
                0.00024167999799828976,
                0.00033626001095399261,
                0.00042137500713579357,
                0.0005153450183570385,
                0.00060504500288516283,
                0.00067815999500453472,
                0.00075452501187101007,
                0.00080752000212669373,
                0.00085323001258075237,
                0.0009247900452464819,
                0.0010003149509429932,
                0.0010576250497251749,
                0.0011291849659755826,
                0.0012006149627268314,
                0.0013042250648140907,
                0.0014256499707698822,
                0.0015139500610530376,
                0.0017450499581173062,
                0.0018596649169921875,
                0.0021099799778312445,
                0.0025240851100534201,
                0.0026551550254225731,
                0.002871599979698658,
                0.0030976950656622648,
                0.0033867252059280872,
                0.0036350148729979992,
                0.0041906251572072506,
                0.0044207852333784103,
                0.0047645098529756069,
                0.0050600548274815083,
                0.0054391752928495407,
                0.0064139701426029205,
                0.0068723903968930244,
                0.0074860849417746067,
                0.0079020652920007706,
                0.009255395270884037,
                0.010173315182328224,
                0.010686020366847515,
                0.011402729898691177,
                0.012036695145070553,
                0.01282433420419693,
                0.013524029403924942,
                0.014473095536231995,
                0.015488710254430771,
                0.016779609024524689,
                0.017791319638490677,
                0.020434439182281494,
                0.021371794864535332,
                0.023294653743505478,
                0.02496076375246048,
                0.026701893657445908,
                0.029115945100784302,
                0.030961710959672928,
                0.035371080040931702,
                0.040150001645088196,
                0.043602503836154938,
                0.046400003135204315,
                0.053873002529144287,
                0.057618997991085052,
                0.061338499188423157,
                0.065134495496749878,
                0.069167003035545349,
                0.073950000107288361,
                0.083866499364376068,
                0.084289997816085815,
                0.086249999701976776,
                0.092250004410743713,
                0.097136497497558594,
                0.10435400158166885,
                0.12677499651908875,
                0.14701950550079346,
                0.17105449736118317,
                0.19987151026725769,
                0.25742450356483459,
                0.31474900245666504,
                0.37838852405548096,
                0.88407999277114868,
                13.920000076293945,
                217.33999633789063,
                13378,
                26375,
                42187.5,
                43586.5
              ],
            "feature_index":5,
            "flat_feature_index":5,
            "has_nans":false,
            "nan_value_treatment":"AsIs"
          },
          {
            "borders":
              [
                3.1949998628988396e-06,
                0.00016453000716865063,
                0.00021594500867649913,
                0.00027471000794321299,
                0.00038142502307891846,
                0.00046988500980660319,
                0.00058100000023841858,
                0.00083399994764477015,
                0.0010004800278693438,
                0.0011958400718867779,
                0.0013920450583100319,
                0.0020514200441539288,
                0.0023293800186365843,
                0.0027703950181603432,
                0.0031428351067006588,
                0.0036263000220060349,
                0.0039382297545671463,
                0.0067994548007845879,
                0.007509864866733551,
                0.010210314765572548,
                0.011127259582281113,
                0.012042844668030739,
                0.012784874998033047,
                0.015403235331177711,
                0.02098410576581955,
                0.022857069969177246,
                0.024842388927936554,
                0.028816696256399155,
                0.030567850917577744,
                0.040286954492330551,
                0.042448475956916809,
                0.045481592416763306,
                0.053048998117446899,
                0.057315997779369354,
                0.062017999589443207,
                0.065538495779037476,
                0.070608004927635193,
                0.075148500502109528,
                0.079237498342990875,
                0.08318299800157547,
                0.092829003930091858,
                0.10154600441455841,
                0.11557649821043015,
                0.12247850000858307,
                0.13879349827766418,
                0.15543150901794434,
                0.1659109890460968,
                0.17518049478530884,
                0.19048449397087097,
                0.21422749757766724,
                0.23745951056480408,
                0.25546348094940186,
                0.27457699179649353,
                0.32637348771095276,
                0.34464651346206665,
                0.36975750327110291,
                0.40052902698516846,
                0.45705398917198181,
                0.49585449695587158,
                0.53286898136138916,
                0.62888151407241821,
                0.69612205028533936,
                0.76578599214553833,
                17.884998321533203,
                26.75,
                49.540000915527344,
                85.634994506835938,
                252.65499877929688,
                11369,
                14306.5,
                18644.5,
                20348,
                30743,
                35110.5,
                43420,
                43502,
                43610,
                43754.5,
                46403.5
              ],
            "feature_index":6,
            "flat_feature_index":6,
            "has_nans":false,
            "nan_value_treatment":"AsIs"
          },
          {
            "borders":
              [
                0.5,
                806.5,
                10378,
                99998,
                510373.34375,
                998849.5,
                1069169.5,
                1497600,
                3270690.5,
                5000000.5,
                6050000,
                10000000,
                14882712,
                16245378,
                18012020,
                20987214,
                21042162,
                29999430,
                30085780,
                32239416,
                33743172,
                41860112,
                44828444,
                49995688,
                58642776,
                65912200,
                79170256,
                82191040,
                92144048,
                99995000,
                100002496,
                103923752,
                162643136,
                200042096,
                242387872,
                300237632,
                398759936,
                415035712,
                540326080,
                601246464,
                804000000,
                888444416,
                932984064,
                994547136,
                1009075840,
                1224999936,
                1495746304,
                1997019648,
                2019355904,
                3035000064,
                3712353024,
                4009513472,
                4992303616,
                5828612096,
                6011901952,
                6987858944,
                8849000448,
                9013415936,
                10029381632,
                21024999424,
                30499999744,
                38999998464,
                47042441216,
                76000002048,
                89500000256,
                99979378688,
                104999993344,
                324999970816,
                911168634880,
                1565576658944
              ],
            "feature_index":7,
            "flat_feature_index":7,
            "has_nans":false,
            "nan_value_treatment":"AsIs"
          },
          {
            "borders":
              [
                0.5,
                1.5,
                2.5,
                3.5,
                5.5,
                6.5,
                7.5,
                8.5,
                9.5,
                10.5,
                12.5,
                13.5,
                15.5,
                17.5,
                21.5,
                24,
                26.5,
                36.5,
                37.5,
                45.5,
                50.5,
                58.5,
                98,
                131.5,
                188,
                215.5,
                223.5,
                271.5,
                274.5,
                277.5,
                282.5,
                308.5,
                324.5,
                344.5,
                371,
                408,
                488.5,
                775
              ],
            "feature_index":8,
            "flat_feature_index":8,
            "has_nans":false,
            "nan_value_treatment":"AsIs"
          },
          {
            "borders":
              [
                0.5,
                1.5,
                2.5,
                4.5,
                5.5,
                7.5,
                10.5,
                18.5,
                21.5,
                25.5,
                27.5,
                29.5,
                30.5,
                40.5,
                47.5,
                70.5,
                84.5,
                93.5,
                208,
                216.5,
                301.5,
                482.5,
                561.5,
                625.5,
                734.5,
                921.5,
                1010.5,
                1188,
                1317.5,
                1420.5,
                1679,
                2107.5,
                2222,
                2594,
                2803
              ],
            "feature_index":9,
            "flat_feature_index":9,
            "has_nans":false,
            "nan_value_treatment":"AsIs"
          },
          {
            "borders":
              [
                0.5,
                1.5,
                2.5,
                3.5,
                4.5,
                6.5,
                7.5,
                8.5,
                9.5,
                10.5,
                12.5,
                13.5,
                16.5,
                17.5,
                18.5,
                19.5,
                22.5,
                23.5,
                29.5,
                30.5,
                37.5,
                42.5,
                45.5,
                49.5,
                61.5,
                62.5,
                68.5,
                70.5,
                78.5,
                290.5,
                379.5,
                1050,
                2442,
                2881,
                3349,
                4060.5,
                7514.5
              ],
            "feature_index":10,
            "flat_feature_index":10,
            "has_nans":false,
            "nan_value_treatment":"AsIs"
          },
          {
            "borders":
              [
                0.5
              ],
            "feature_index":11,
            "flat_feature_index":11,
            "has_nans":false,
            "nan_value_treatment":"AsIs"
          },
          {
            "borders":
              [
                0.5,
                1.5,
                5.5,
                6.5,
                7.5,
                8.5,
                9.5,
                11.5,
                12.5,
                15.5,
                16.5,
                20.5,
                24.5,
                37.5,
                41.5,
                45.5,
                58.5,
                76.5,
                84.5,
                107.5,
                128.5,
                155.5,
                181.5,
                218,
                219.5,
                295.5,
                343.5,
                453.5,
                499.5,
                579.5,
                618,
                685,
                941.5,
                992.5,
                1096,
                1332.5,
                1398,
                1577,
                1906,
                2157.5,
                2451,
                3258,
                3408,
                4718,
                5774,
                6211.5,
                6724,
                7865.5,
                9474,
                11951,
                15256,
                20114,
                27353.5,
                54782.5,
                86828
              ],
            "feature_index":12,
            "flat_feature_index":12,
            "has_nans":false,
            "nan_value_treatment":"AsIs"
          },
          {
            "borders":
              [
                0.5,
                7.5,
                11.5,
                14.5,
                21.5,
                25.5,
                32.5,
                50.5,
                54.5,
                95.5,
                120.5,
                153.5,
                169,
                182.5,
                199.5,
                280,
                296,
                340,
                403.5,
                468.5,
                490,
                527,
                602,
                673.5,
                729.5,
                766.5,
                829,
                998,
                1044,
                1397.5,
                1479.5,
                1530,
                1946,
                2054.5,
                2205.5,
                2282,
                2564.5,
                2811,
                3223.5,
                3424.5,
                3632.5,
                4022.5,
                4209,
                4718,
                4954.5,
                5180,
                5327.5,
                5539,
                5885.5,
                6223.5,
                6484,
                6766.5,
                6919,
                8115.5,
                8516.5,
                10576,
                11288,
                11964,
                12499.5,
                14639.5,
                15560,
                21590.5,
                28838.5,
                37478.5,
                43087,
                80839.5,
                244264.5
              ],
            "feature_index":13,
            "flat_feature_index":13,
            "has_nans":false,
            "nan_value_treatment":"AsIs"
          },
          {
            "borders":
              [
                0.5,
                1.5,
                3.5,
                5.5,
                9.5,
                14.5,
                18.5,
                20.5,
                23.5,
                28.5,
                32.5,
                35.5,
                43.5,
                77.5,
                95.5,
                103,
                110.5,
                129.5,
                135.5,
                164.5,
                174.5,
                184.5,
                194.5,
                218,
                240.5,
                288.5,
                303,
                321.5,
                349.5,
                356.5,
                425,
                461.5,
                501,
                541.5,
                580.5,
                766.5,
                824.5,
                891,
                930,
                978.5,
                1151,
                1228.5,
                1250,
                1348,
                1450.5,
                1539,
                1634,
                1721,
                1794,
                1913.5,
                1976.5,
                2117,
                2224,
                2363.5,
                2509,
                2638,
                2966.5,
                3038.5,
                3115.5,
                3239.5,
                3341.5,
                3673.5,
                3764,
                3943.5,
                4257,
                4517.5,
                4787.5,
                5033,
                5266.5,
                5928,
                7556.5,
                8499,
                9311.5,
                10063.5,
                10656.5,
                11047,
                11963,
                12702.5,
                13594,
                14536,
                16013,
                23322,
                27650.5,
                31110,
                34147,
                40589,
                60558,
                188476.5
              ],
            "feature_index":14,
            "flat_feature_index":14,
            "has_nans":false,
            "nan_value_treatment":"AsIs"
          },
          {
            "borders":
              [
                0.5
              ],
            "feature_index":15,
            "flat_feature_index":15,
            "has_nans":false,
            "nan_value_treatment":"AsIs"
          },
          {
            "borders":
              [
                1.2901916306873318e-05,
                0.00011779787746490911,
                0.00014513284259010106,
                0.00020786920504178852,
                0.00022861396428197622,
                0.00035784131614491343,
                0.0009475689148530364,
                0.0014703813940286636,
                0.0015830413904041052,
                0.0017966616433113813,
                0.0026499377563595772,
                0.0028430549427866936,
                0.0034963267389684916,
                0.0047799628227949142,
                0.0059632817283272743,
                0.0062493123114109039,
                0.0086050946265459061,
                0.0089996568858623505,
                0.009631086140871048,
                0.010173453018069267,
                0.011014173738658428,
                0.012604733929038048,
                0.014813743531703949,
                0.01549818366765976,
                0.018228065222501755,
                0.023609045892953873,
                0.026299506425857544,
                0.030887328088283539,
                0.033224329352378845,
                0.059920154511928558,
                0.06619744747877121,
                0.080898664891719818,
                0.086228415369987488,
                0.097440436482429504,
                0.1499769538640976,
                0.1704060435295105,
                0.18639704585075378,
                0.22158198058605194,
                0.43368640542030334,
                0.65488743782043457,
                0.89722073078155518,
                543787520,
                1012574976,
                1798749952,
                2428749824,
                3296499968,
                13653749760,
                19263123456,
                28300001280,
                36095000576,
                42761248768,
                63600001024,
                136616247296,
                4762368722599936,
                8148530602442752,
                13407857105960960,
                16662827062263808
              ],
            "feature_index":16,
            "flat_feature_index":16,
            "has_nans":false,
            "nan_value_treatment":"AsIs"
          },
          {
            "borders":
              [
                1.4948053831176367e-05,
                0.00010889756958931684,
                0.000154530891450122,
                0.00017350888811051846,
                0.00022115623869467527,
                0.00024815020151436329,
                0.00035835412563756108,
                0.00038911440060473979,
                0.00041848557884804904,
                0.00047469948185607791,
                0.00083302147686481476,
                0.00088403385598212481,
                0.00094706786330789328,
                0.0010867466917261481,
                0.00115605304017663,
                0.0013004112988710403,
                0.0016408016672357917,
                0.0018613184802234173,
                0.0019686657469719648,
                0.0020687589421868324,
                0.0021833919454365969,
                0.0023947148583829403,
                0.0026245915796607733,
                0.0031336834654211998,
                0.0032773846760392189,
                0.0033555438276380301,
                0.0035153543576598167,
                0.0043392293155193329,
                0.0065178126096725464,
                0.0070715057663619518,
                0.0087621677666902542,
                0.009716513566672802,
                0.01061115600168705,
                0.01149270124733448,
                0.012696900404989719,
                0.015983497723937035,
                0.017619220539927483,
                0.019456898793578148,
                0.022795680910348892,
                0.026840060949325562,
                0.030405811965465546,
                0.042062744498252869,
                0.047359272837638855,
                0.053207032382488251,
                0.063339844346046448,
                0.13121822476387024,
                0.26029998064041138,
                0.44413077831268311,
                0.51486808061599731,
                0.74198764562606812,
                139807504,
                1915000064,
                2168974848,
                3888750080,
                5845000192,
                6785500160,
                7896250368,
                18362875904,
                20762501120,
                41574998016,
                67937501184,
                112474996736,
                160712491008,
                318212472832,
                2541550118633472,
                3533322491789312,
                6361330822938624,
                10875930935296000,
                16385010323947520,
                21152116932345856
              ],
            "feature_index":17,
            "flat_feature_index":17,
            "has_nans":false,
            "nan_value_treatment":"AsIs"
          },
          {
            "borders":
              [
                1.3534809113480151e-05,
                0.00012325341231189668,
                0.00015170642291195691,
                0.00018099872977472842,
                0.00022040070325601846,
                0.00024453006335534155,
                0.00026820492348633707,
                0.00031472655246034265,
                0.00034377429983578622,
                0.00039016787195578218,
                0.0004798531299456954,
                0.0006001950241625309,
                0.00066026666900143027,
                0.00071979558560997248,
                0.0010660486295819283,
                0.0013373170513659716,
                0.0015298228245228529,
                0.0016610152088105679,
                0.001829610439017415,
                0.0018984118942171335,
                0.002330319955945015,
                0.0025366416666656733,
                0.0032775630243122578,
                0.0035865844693034887,
                0.0044363471679389477,
                0.0047547547146677971,
                0.0050531486049294472,
                0.0053920866921544075,
                0.0058219274505972862,
                0.006227799691259861,
                0.0067592235282063484,
                0.0097832381725311279,
                0.011092785745859146,
                0.012917384505271912,
                0.017696406692266464,
                0.019319891929626465,
                0.021297832950949669,
                0.027710866183042526,
                0.029627073556184769,
                0.031591456383466721,
                0.035178907215595245,
                0.042778655886650085,
                0.048208281397819519,
                0.054172173142433167,
                0.058201778680086136,
                0.063036918640136719,
                0.072323426604270935,
                0.081572875380516052,
                0.10584352910518646,
                0.12716963887214661,
                0.15443012118339539,
                0.18493585288524628,
                0.20187202095985413,
                0.29883107542991638,
                0.34143820405006409,
                0.37977361679077148,
                0.69752836227416992,
                3673874944,
                4988375040,
                7689251328,
                10319375360,
                13333499904,
                14996250624,
                17496250368,
                44563750912,
                64119250944,
                73712500736,
                95887499264,
                118193872896,
                144874995712,
                215562502144,
                2140584990998528,
                4578426547601408,
                7541187330179072,
                9843007406735360,
                14412402711855104,
                18637825897398272
              ],
            "feature_index":18,
            "flat_feature_index":18,
            "has_nans":false,
            "nan_value_treatment":"AsIs"
          },
          {
            "borders":
              [
                1.2753546798194293e-05,
                5.7462129916530102e-05,
                0.00011719275789801031,
                0.00015871743380557746,
                0.00016783454339019954,
                0.00018028455087915063,
                0.00021833367645740509,
                0.00024577230215072632,
                0.00029154357616789639,
                0.00036953965900465846,
                0.00064561626641079783,
                0.00080145482206717134,
                0.00093427358660846949,
                0.0011674148263409734,
                0.0013817588333040476,
                0.0018521919846534729,
                0.0021112528629601002,
                0.0022749463096261024,
                0.0025415383279323578,
                0.003229653462767601,
                0.0035580634139478207,
                0.0038777822628617287,
                0.004276445135474205,
                0.004707646556198597,
                0.0055765761062502861,
                0.0059837261214852333,
                0.0064505012705922127,
                0.0073790899477899075,
                0.0086560938507318497,
                0.0093161594122648239,
                0.010033298283815384,
                0.010720668360590935,
                0.011735804378986359,
                0.012667028233408928,
                0.013140203431248665,
                0.01748102530837059,
                0.022891184315085411,
                0.034261960536241531,
                0.042515143752098083,
                0.047902435064315796,
                0.053577020764350891,
                0.058595098555088043,
                0.065335780382156372,
                0.071708321571350098,
                0.079878427088260651,
                0.099353775382041931,
                0.10673856735229492,
                0.1161358654499054,
                0.14832907915115356,
                0.17508327960968018,
                0.19346083700656891,
                0.20338711142539978,
                0.2451503723859787,
                0.29926967620849609,
                0.47411680221557617,
                0.63737618923187256,
                146062496,
                271875008,
                422150016,
                2373750016,
                2580262400,
                4140000000,
                6629999616,
                8577625088,
                10312500224,
                17250000896,
                22744999936,
                36365000704,
                69940740096,
                97700003840,
                140974997504,
                174499987456,
                59418125271040,
                2750045011050496,
                6118137426608128,
                7344595939622912,
                9734199779000320,
                12210644635877376,
                16204875100585984
              ],
            "feature_index":19,
            "flat_feature_index":19,
            "has_nans":false,
            "nan_value_treatment":"AsIs"
          },
          {
            "borders":
              [
                1.2534598681668285e-05,
                5.0922790251206607e-05,
                8.3760969573631883e-05,
                0.00011486491712275892,
                0.00016559149662498385,
                0.00018508336506783962,
                0.00023811336723156273,
                0.00026882707607001066,
                0.00030362672987394035,
                0.0003432974626775831,
                0.00038781960029155016,
                0.00042390482849441469,
                0.00052686652634292841,
                0.00055883312597870827,
                0.00065472442656755447,
                0.00078386772656813264,
                0.0010067891562357545,
                0.0011679846793413162,
                0.001213352894410491,
                0.0014456749195232987,
                0.0015533489640802145,
                0.0017029237933456898,
                0.0018078857101500034,
                0.0019989092834293842,
                0.002704317681491375,
                0.0029005403630435467,
                0.0031229937449097633,
                0.0033233650028705597,
                0.0038521010428667068,
                0.0043874401599168777,
                0.0051118116825819016,
                0.0053008338436484337,
                0.0055361124686896801,
                0.0059247221797704697,
                0.0063519803807139397,
                0.0067835724912583828,
                0.0072016054764389992,
                0.0094715962186455727,
                0.010268464684486389,
                0.010877938941121101,
                0.015071243979036808,
                0.018659995868802071,
                0.020538302138447762,
                0.026966080069541931,
                0.030094144865870476,
                0.037631995975971222,
                0.046520181000232697,
                0.068475790321826935,
                0.084896087646484375,
                0.096521064639091492,
                0.11238390207290649,
                0.13420471549034119,
                0.22081694006919861,
                0.26716321706771851,
                0.33262708783149719,
                0.40699315071105957,
                0.53438162803649902,
                5742500,
                151762496,
                414249984,
                2127624960,
                3653250048,
                4998249984,
                6519249920,
                8874749952,
                12017375232,
                13137500160,
                15107375104,
                24187498496,
                34524999680,
                47687499776,
                83740499968,
                113658748928,
                240325001216,
                1396102876102656,
                4829809372823552,
                5502000208805888,
                7041272464277504,
                9572154957889536,
                12416137346154496,
                16036196702486528
              ],
            "feature_index":20,
            "flat_feature_index":20,
            "has_nans":false,
            "nan_value_treatment":"AsIs"
          }
        ]
    },
  "model_info":
    {
      "catboost_version_info":"Git info:\n    Commit: 3f2f0a84b34f2dac59bcc92578751c5a83184689\n    Branch: heads/master\n    Author: Dmitry Baksheev <dbakshee@yandex.ru>\n    Summary: Fix setting of summand_scale_and_biases in modelInfo\n    git-svn info:\n    Last Changed Rev: 6079147\n\nOther info:\n    Build by: go\n    Top src dir: /var/lib/go-agent/pipelines/BuildMaster/catboost.git\n    Top build dir: /storage/.ya/build\n    Hostname: catboost-builder-linux\n    Host information: \n        Linux catboost-builder-linux 4.4.0-166-generic #195-Ubuntu SMP Tue Oct 1 09:35:25 UTC 2019 x86_64\n\n    ",
      "model_guid":"7c51ac84-d81c7226-4c2444f-b5358abf",
      "output_options":"{\"name\":\"experiment\",\"verbose\":1,\"test_error_log\":\"test_error.tsv\",\"json_log\":\"catboost_training.json\",\"result_model_file\":\"model\",\"roc_file\":\"\",\"eval_file_name\":\"\",\"use_best_model\":false,\"allow_writing_files\":true,\"prediction_type\":[\"RawFormulaVal\"],\"fstr_internal_file\":\"\",\"output_columns\":[\"SampleId\",\"RawFormulaVal\",\"Label\"],\"snapshot_interval\":600,\"time_left_log\":\"time_left.tsv\",\"fstr_type\":\"FeatureImportance\",\"profile_log\":\"catboost_profile.log\",\"train_dir\":\"catboost_info\",\"learn_error_log\":\"learn_error.tsv\",\"training_options_file\":\"\",\"snapshot_file\":\"experiment.cbsnapshot\",\"save_snapshot\":false,\"model_format\":[\"CatboostBinary\"],\"final_feature_calcer_computation_mode\":\"Default\",\"metric_period\":1,\"output_borders\":\"\",\"final_ctr_computation_mode\":\"Default\",\"best_model_min_trees\":1,\"fstr_regular_file\":\"\"}",
      "params":
        {
          "boosting_options":
            {
              "approx_on_full_history":false,
              "boost_from_average":false,
              "boosting_type":"Plain",
              "fold_len_multiplier":2,
              "fold_permutation_block":0,
              "iterations":802,
              "learning_rate":0.4476540685,
              "model_shrink_rate":0,
              "od_config":
                {
                  "stop_pvalue":0,
                  "type":"None",
                  "wait_iterations":20
                },
              "permutation_count":4
            },
          "cat_feature_params":
            {
              "combinations_ctrs":
                [
                  {
                    "ctr_binarization":
                      {
                        "border_count":15,
                        "border_type":"Uniform"
                      },
                    "ctr_type":"Borders",
                    "prior_estimation":"No",
                    "priors":
                      [
                        [
                          0,
                          1
                        ],
                        [
                          0.5,
                          1
                        ],
                        [
                          1,
                          1
                        ]
                      ],
                    "target_binarization":
                      {
                        "border_count":1,
                        "border_type":"MinEntropy"
                      }
                  },
                  {
                    "ctr_binarization":
                      {
                        "border_count":15,
                        "border_type":"Uniform"
                      },
                    "ctr_type":"Counter",
                    "prior_estimation":"No",
                    "priors":
                      [
                        [
                          0,
                          1
                        ]
                      ]
                  }
                ],
              "counter_calc_method":"SkipTest",
              "ctr_leaf_count_limit":18446744073709551615,
              "max_ctr_complexity":4,
              "one_hot_max_size":2,
              "per_feature_ctrs":
                {
                },
              "simple_ctrs":
                [
                  {
                    "ctr_binarization":
                      {
                        "border_count":15,
                        "border_type":"Uniform"
                      },
                    "ctr_type":"Borders",
                    "prior_estimation":"No",
                    "priors":
                      [
                        [
                          0,
                          1
                        ],
                        [
                          0.5,
                          1
                        ],
                        [
                          1,
                          1
                        ]
                      ],
                    "target_binarization":
                      {
                        "border_count":1,
                        "border_type":"MinEntropy"
                      }
                  },
                  {
                    "ctr_binarization":
                      {
                        "border_count":15,
                        "border_type":"Uniform"
                      },
                    "ctr_type":"Counter",
                    "prior_estimation":"No",
                    "priors":
                      [
                        [
                          0,
                          1
                        ]
                      ]
                  }
                ],
              "store_all_simple_ctr":false,
              "target_binarization":
                {
                  "border_count":1,
                  "border_type":"MinEntropy"
                }
            },
          "data_processing_options":
            {
              "allow_const_label":false,
              "class_names":
                [
                ],
              "class_weights":
                [
                  1,
                  0.94941145179999997
                ],
              "classes_count":0,
              "dev_default_value_fraction_for_sparse":0.82999998330000002,
              "dev_group_features":false,
              "dev_leafwise_scoring":false,
              "dev_sparse_array_indexing":"Indices",
              "float_features_binarization":
                {
                  "border_count":121,
                  "border_type":"GreedyLogSum",
                  "nan_mode":"Min"
                },
              "has_time":false,
              "ignored_features":
                [
                ],
              "per_float_feature_quantization":
                {
                },
              "target_border":null,
              "text_processing_options":
                {
                  "dictionaries":
                    [
                      {
                        "dictionary_id":"BiGram",
                        "gram_order":"2",
                        "max_dict_size":"50000",
                        "min_token_occurrence":"5",
                        "token_level_type":"Word"
                      },
                      {
                        "dictionary_id":"Word",
                        "max_dict_size":"50000",
                        "min_token_occurrence":"5",
                        "token_level_type":"Word"
                      }
                    ],
                  "text_processing":
                    {
                      "default":
                        [
                          {
                            "dictionaries_names":
                              [
                                "BiGram",
                                "Word"
                              ],
                            "feature_calcer":"BoW"
                          },
                          {
                            "dictionaries_names":
                              [
                                "Word"
                              ],
                            "feature_calcer":"NaiveBayes"
                          }
                        ]
                    }
                }
            },
          "detailed_profile":false,
          "flat_params":
            {
              "bagging_temperature":1,
              "border_count":121,
              "class_weights":
                [
                  1,
                  0.94941147719999996
                ],
              "depth":4,
              "iterations":802,
              "l2_leaf_reg":30,
              "learning_rate":0.4476540651,
              "loss_function":"Logloss",
              "random_strength":10,
              "verbose":1
            },
          "logging_level":"Verbose",
          "loss_function":
            {
              "params":
                {
                },
              "type":"Logloss"
            },
          "metadata":
            {
            },
          "metrics":
            {
              "custom_metrics":
                [
                ],
              "eval_metric":
                {
                  "params":
                    {
                    },
                  "type":"Logloss"
                },
              "objective_metric":
                {
                  "params":
                    {
                    },
                  "type":"Logloss"
                }
            },
          "random_seed":0,
          "system_options":
            {
              "file_with_hosts":"hosts.txt",
              "node_port":0,
              "node_type":"SingleHost",
              "thread_count":4,
              "used_ram_limit":""
            },
          "task_type":"CPU",
          "tree_learner_options":
            {
              "bayesian_matrix_reg":0.1000000015,
              "bootstrap":
                {
                  "mvs_reg":null,
                  "subsample":0.80000001190000003,
                  "type":"MVS"
                },
              "depth":4,
              "dev_efb_max_buckets":1024,
              "dev_leafwise_approxes":false,
              "dev_score_calc_obj_block_size":5000000,
              "l2_leaf_reg":30,
              "leaf_estimation_backtracking":"AnyImprovement",
              "leaf_estimation_iterations":10,
              "leaf_estimation_method":"Newton",
              "model_size_reg":0.5,
              "monotone_constraints":
                {
                },
              "random_strength":10,
              "rsm":1,
              "sampling_frequency":"PerTree",
              "score_function":"Cosine",
              "sparse_features_conflict_fraction":0
            }
        },
      "train_finish_time":"2019-12-19T13:28:57Z"
    },
  "oblivious_trees":
    [
      {
        "leaf_values":
          [
            -0.84272895786322422,
            -0.74514759223121352,
            0,
            0,
            -0.92018235257506542,
            -0.94652590650200419,
            -0.73688369874526682,
            -0.88801966118173647
          ],
        "leaf_weights":
          [
            359.47057259082794,
            1855.2669615149498,
            0,
            0,
            130.24117177724838,
            528.96468710899353,
            246.87528097629547,
            1601.679936170578
          ],
        "splits":
          [
            {
              "border":0.0027703950181603432,
              "float_feature_index":6,
              "split_index":412,
              "split_type":"FloatFeature"
            },
            {
              "border":1.8570225238800049,
              "float_feature_index":3,
              "split_index":180,
              "split_type":"FloatFeature"
            },
            {
              "border":0.5,
              "float_feature_index":11,
              "split_index":658,
              "split_type":"FloatFeature"
            }
          ]
      },
      {
        "leaf_values":
          [
            -0.43037563952220192,
            -0.53774335610028512,
            -0.52729549292306443,
            -0.45151900322603894,
            -0.22602076556437253,
            -0.35421861224340584,
            -0.42325364684695443,
            -0.50867890154526951,
            -0.226890554413334,
            -0.067510338627726901,
            -0.81568955597834358,
            -0.25110099261927515,
            -0.039915149895813649,
            0.053182115339967903,
            -0.19850776619848123,
            0.10135551375514965
          ],
        "leaf_weights":
          [
            625.39644211530685,
            149.1399946808815,
            1846.1116911768913,
            463.66115581989288,
            241.47057259082794,
            53.595291614532471,
            823.42348873615265,
            279.17881226539612,
            9.9494114518165588,
            4.9494114518165588,
            62.898822903633118,
            10.949411451816559,
            21.696468710899353,
            1.9494114518165588,
            83.988229036331177,
            44.1399946808815
          ],
        "splits":
          [
            {
              "border":1946,
              "float_feature_index":13,
              "split_index":746,
              "split_type":"FloatFeature"
            },
            {
              "border":5838.5,
              "float_feature_index":0,
              "split_index":39,
              "split_type":"FloatFeature"
            },
            {
              "border":0.36975750327110291,
              "float_feature_index":6,
              "split_index":454,
              "split_type":"FloatFeature"
            },
            {
              "border":63600001024,
              "float_feature_index":16,
              "split_index":921,
              "split_type":"FloatFeature"
            }
          ]
      },
      {
        "leaf_values":
          [
            -0.58267261886179877,
            -0.44817922495424445,
            -0.24868514235099634,
            -0.43988776236407762,
            -0.18125564390300924,
            0,
            -0.058638714995198814,
            -0.061957268194059605,
            0,
            0,
            0.1323526170160986,
            0.082678961505332479,
            0,
            0,
            0.079342536794667962,
            -0.036648183789808199
          ],
        "leaf_weights":
          [
            1509.4858482480049,
            74.696468710899353,
            2270.6093103885651,
            70.696468710899353,
            7,
            0,
            16.848234355449677,
            2,
            0,
            0,
            631.59053003787994,
            128.72351533174515,
            0,
            0,
            9.8482343554496765,
            1
          ],
        "splits":
          [
            {
              "border":36095000576,
              "float_feature_index":16,
              "split_index":919,
              "split_type":"FloatFeature"
            },
            {
              "border":0.0012006149627268314,
              "float_feature_index":5,
              "split_index":329,
              "split_type":"FloatFeature"
            },
            {
              "border":40.330390930175781,
              "float_feature_index":3,
              "split_index":221,
              "split_type":"FloatFeature"
            },
            {
              "border":0.084289997816085815,
              "float_feature_index":5,
              "split_index":380,
              "split_type":"FloatFeature"
            }
          ]
      },
      {
        "leaf_values":
          [
            -0.13243666075771368,
            0.10248442572887198,
            0,
            0,
            -0.20055495221846761,
            -0.02461408101039133,
            -0.20537732744487122,
            0.05475751709076785,
            0.021779474943115756,
            0,
            0,
            0,
            0.042159288656400208,
            0.095866655781342888,
            0.026101176636584289,
            -0.24594293080157703
          ],
        "leaf_weights":
          [
            3003.7257631421089,
            113.83646339178085,
            0,
            0,
            734.63761389255524,
            65.342348873615265,
            501.20585888624191,
            82.988229036331177,
            18.848234355449677,
            0,
            0,
            0,
            87.634109199047089,
            35.291760325431824,
            70.988229036331177,
            8
          ],
        "splits":
          [
            {
              "border":18.5,
              "float_feature_index":9,
              "split_index":593,
              "split_type":"FloatFeature"
            },
            {
              "border":18644.5,
              "float_feature_index":6,
              "split_index":469,
              "split_type":"FloatFeature"
            },
            {
              "border":0.34464651346206665,
              "float_feature_index":6,
              "split_index":453,
              "split_type":"FloatFeature"
            },
            {
              "border":215562502144,
              "float_feature_index":18,
              "split_index":1067,
              "split_type":"FloatFeature"
            }
          ]
      },
      {
        "leaf_values":
          [
            -0.25041850572542301,
            -0.019153310014880229,
            0.062110947813680574,
            0,
            0.26172961700672664,
            0.15607646554693685,
            0.10016161110188929,
            0,
            -0.18334510802864434,
            -0.0047938682409555435,
            -0.35043079903413016,
            0.31182864402116484,
            0.09112326732513347,
            0.089727467222550775,
            0.19421956860373238,
            -0.08713660381227871
          ],
        "leaf_weights":
          [
            722.559978723526,
            479.61056727170944,
            2.9494114518165588,
            0,
            142.31880694627762,
            48.241171777248383,
            0.94941145181655884,
            0,
            1911.5281705260277,
            991.76583760976791,
            18,
            10.747057259082794,
            333.839968085289,
            34.494114518165588,
            23.494114518165588,
            2
          ],
        "splits":
          [
            {
              "border":999999872,
              "float_feature_index":2,
              "split_index":130,
              "split_type":"FloatFeature"
            },
            {
              "border":37.5,
              "float_feature_index":8,
              "split_index":566,
              "split_type":"FloatFeature"
            },
            {
              "border":0.12677499651908875,
              "float_feature_index":5,
              "split_index":385,
              "split_type":"FloatFeature"
            },
            {
              "border":28.5,
              "float_feature_index":14,
              "split_index":790,
              "split_type":"FloatFeature"
            }
          ]
      },
      {
        "leaf_values":
          [
            -0.0032613297835748013,
            -0.13478231577465827,
            -0.15880622506012446,
            -0.04573201478929162,
            0,
            0,
            0,
            0,
            -4.9359533356550162e-05,
            0.41356354365888764,
            -0.014000524642984622,
            0.44782418232005927,
            -0.20018552758464181,
            -0.21560045391174851,
            -0.17442057040827422,
            0.025840877525882967
          ],
        "leaf_weights":
          [
            262.82469242811203,
            6,
            137.08940613269806,
            1,
            0,
            0,
            0,
            0,
            1571.5163995623589,
            11.696468710899353,
            1491.959925532341,
            58.482343554496765,
            493.82469242811203,
            16,
            618.61056727170944,
            53.494114518165588
          ],
        "splits":
          [
            {
              "border":34147,
              "float_feature_index":14,
              "split_index":865,
              "split_type":"FloatFeature"
            },
            {
              "border":0.0025366416666656733,
              "float_feature_index":18,
              "split_index":1018,
              "split_type":"FloatFeature"
            },
            {
              "border":9735.5,
              "float_feature_index":0,
              "split_index":46,
              "split_type":"FloatFeature"
            },
            {
              "border":562.5,
              "float_feature_index":0,
              "split_index":15,
              "split_type":"FloatFeature"
            }
          ]
      },
      {
        "leaf_values":
          [
            -0.0086135105696838691,
            0.022143295256392137,
            -0.12596445709876894,
            -0.16630133638574329,
            -0.038860677402583289,
            0.038449890572117305,
            -0.093455870826569684,
            0.39699170634669223,
            0.020625419517427863,
            -0.02575569223881298,
            -0.2804128199635999,
            -0.12361040401997193,
            -0.11273606623447273,
            -0.15922538623517662,
            -0.020969455237666645,
            0.11519982253725036
          ],
        "leaf_weights":
          [
            3696.3516060709953,
            142.88705193996429,
            337.279989361763,
            104.44352596998215,
            101.1399946808815,
            47.392937421798706,
            15.898822903633118,
            19.494114518165588,
            172.77410387992859,
            24.645880162715912,
            15.949411451816559,
            4.9494114518165588,
            10.898822903633118,
            14.797645807266235,
            2.9494114518165588,
            10.645880162715912
          ],
        "splits":
          [
            {
              "border":14536,
              "float_feature_index":14,
              "split_index":860,
              "split_type":"FloatFeature"
            },
            {
              "border":8115.5,
              "float_feature_index":13,
              "split_index":767,
              "split_type":"FloatFeature"
            },
            {
              "border":40.5,
              "float_feature_index":9,
              "split_index":599,
              "split_type":"FloatFeature"
            },
            {
              "border":144874995712,
              "float_feature_index":18,
              "split_index":1066,
              "split_type":"FloatFeature"
            }
          ]
      },
      {
        "leaf_values":
          [
            0.050869220917839658,
            -0.20599232983208246,
            -0.05457510123478599,
            -0.043304624280230804,
            0.17496734223849114,
            -0.16081669584925193,
            0.090462717290947695,
            0.075845947078787765,
            0.10035799406302753,
            -0.0408710762963665,
            0.026937718618880935,
            -0.35689585065691631,
            0.10090213268780553,
            -0.037468490929423441,
            0.031211427611946806,
            0.093121736946678677
          ],
        "leaf_weights":
          [
            402.26821839809418,
            757.61056727170944,
            3,
            1,
            598.48584824800491,
            375.17881226539612,
            1.9494114518165588,
            0.94941145181655884,
            291.86351001262665,
            1283.9834674596786,
            1.9494114518165588,
            22.898822903633118,
            427.45880162715912,
            542.10468178987503,
            2.9494114518165588,
            8.8482343554496765
          ],
        "splits":
          [
            {
              "border":0.0165985357016325,
              "float_feature_index":4,
              "split_index":255,
              "split_type":"FloatFeature"
            },
            {
              "border":58.5,
              "float_feature_index":8,
              "split_index":569,
              "split_type":"FloatFeature"
            },
            {
              "border":619205056,
              "float_feature_index":2,
              "split_index":121,
              "split_type":"FloatFeature"
            },
            {
              "border":0.004707646556198597,
              "float_feature_index":19,
              "split_index":1097,
              "split_type":"FloatFeature"
            }
          ]
      },
      {
        "leaf_values":
          [
            -0.85419498114868331,
            -0.39786013613856308,
            0,
            0,
            0.052966396798823097,
            0.29802250330658409,
            0,
            0,
            -0.080322337867738652,
            -0.14732708728959418,
            0,
            -0.66774670385053958,
            -0.18276386029988995,
            0.10747993881799993,
            0,
            -0.062814944382992455
          ],
        "leaf_weights":
          [
            143,
            13,
            0,
            0,
            2693.5234089493752,
            136.76233291625977,
            0,
            0,
            5,
            8,
            0,
            67,
            257.93764048814774,
            135.78587484359741,
            0,
            1262.4893529415131
          ],
        "splits":
          [
            {
              "border":0.32637348771095276,
              "float_feature_index":6,
              "split_index":452,
              "split_type":"FloatFeature"
            },
            {
              "border":0.3952491283416748,
              "float_feature_index":4,
              "split_index":285,
              "split_type":"FloatFeature"
            },
            {
              "border":0.5,
              "float_feature_index":15,
              "split_index":869,
              "split_type":"FloatFeature"
            },
            {
              "border":0.17411705851554871,
              "float_feature_index":4,
              "split_index":275,
              "split_type":"FloatFeature"
            }
          ]
      },
      {
        "leaf_values":
          [
            -0.57657113380179204,
            -0.0016378952565338969,
            -0.16024979545234769,
            0.071010689408817218,
            -0.37139805550059157,
            0.02174305119634852,
            -0.22788887168356423,
            0.027248907690653655,
            -0.15526085190000419,
            0.16141926657010139,
            -0.064222011878232774,
            0.096447998383751191,
            -0.13057915593117508,
            -0.21166936964976502,
            -0.054826487982235828,
            -0.24141786192512404
          ],
        "leaf_weights":
          [
            95,
            1822.1893263459206,
            20,
            536.29526501893997,
            50,
            1023.3105406761169,
            30,
            571.4470306634903,
            14,
            166.07763516902924,
            7,
            66.291760325431824,
            14,
            237.08940613269806,
            6,
            63.797645807266235
          ],
        "splits":
          [
            {
              "border":0.5,
              "float_feature_index":15,
              "split_index":869,
              "split_type":"FloatFeature"
            },
            {
              "border":1557531136,
              "float_feature_index":2,
              "split_index":132,
              "split_type":"FloatFeature"
            },
            {
              "border":1.6399557590484619,
              "float_feature_index":3,
              "split_index":177,
              "split_type":"FloatFeature"
            },
            {
              "border":6919,
              "float_feature_index":13,
              "split_index":766,
              "split_type":"FloatFeature"
            }
          ]
      },
      {
        "leaf_values":
          [
            -0.3133562925768355,
            0,
            -0.13489819551244131,
            0.054890107203346569,
            -0.19858599329304277,
            -0.2171554940021681,
            0.10300866426121824,
            -0.077206878858345776,
            0,
            0,
            -0.019262157652576772,
            0,
            0.16669163708593332,
            0,
            0.041748137817789265,
            -0.041390072139071782
          ],
        "leaf_weights":
          [
            61.848234355449677,
            0,
            125.03881758451462,
            5.8988229036331177,
            1724.575254380703,
            89.645880162715912,
            2445.8304449319839,
            184.82469242811203,
            0,
            0,
            1,
            0,
            10.848234355449677,
            0,
            58.291760325431824,
            14.696468710899353
          ],
        "splits":
          [
            {
              "border":28300001280,
              "float_feature_index":16,
              "split_index":918,
              "split_type":"FloatFeature"
            },
            {
              "border":0.0021099799778312445,
              "float_feature_index":5,
              "split_index":335,
              "split_type":"FloatFeature"
            },
            {
              "border":121.5,
              "float_feature_index":0,
              "split_index":5,
              "split_type":"FloatFeature"
            },
            {
              "border":24,
              "float_feature_index":8,
              "split_index":563,
              "split_type":"FloatFeature"
            }
          ]
      },
      {
        "leaf_values":
          [
            -0.1331780972292671,
            0,
            0.19927579667718751,
            0,
            -0.051408139406057471,
            0,
            -0.076446426540643389,
            0,
            -0.41491060237614497,
            -0.039030510915435204,
            -0.0020544705068329611,
            -0.061345340435167428,
            -0.15034285780778686,
            0,
            0.039040325011850473,
            -0.05440037912786938
          ],
        "leaf_weights":
          [
            12,
            0,
            82.937640488147736,
            0,
            68.696468710899353,
            0,
            243.279989361763,
            0,
            125.84823435544968,
            2,
            1058.0964155197144,
            7.8988229036331177,
            531.02704662084579,
            0,
            2572.8657578229904,
            17.848234355449677
          ],
        "splits":
          [
            {
              "border":131.5,
              "float_feature_index":8,
              "split_index":571,
              "split_type":"FloatFeature"
            },
            {
              "border":0.00018919500871561468,
              "float_feature_index":5,
              "split_index":315,
              "split_type":"FloatFeature"
            },
            {
              "border":25100000,
              "float_feature_index":2,
              "split_index":91,
              "split_type":"FloatFeature"
            },
            {
              "border":562.5,
              "float_feature_index":0,
              "split_index":15,
              "split_type":"FloatFeature"
            }
          ]
      },
      {
        "leaf_values":
          [
            0.059302217345045816,
            -0.099301266617051326,
            0.11345481791428794,
            -0.017015149177340174,
            0.078694847127238066,
            -0.33954969611218766,
            0.014517336174609459,
            -0.2568699086256801,
            -0.059285525388683737,
            -0.01097767557928564,
            -0.016687411276434853,
            0.18394187038804732,
            0,
            0,
            0.097029368392550067,
            0
          ],
        "leaf_weights":
          [
            1014.6528895497322,
            689.6999734044075,
            911.60230100154877,
            946.41171777248383,
            198.53293210268021,
            139.59529161453247,
            364.77410387992859,
            437.43175500631332,
            3,
            1,
            9.9494114518165588,
            2.8988229036331177,
            0,
            0,
            2.9494114518165588,
            0
          ],
        "splits":
          [
            {
              "border":0.073727145791053772,
              "float_feature_index":4,
              "split_index":269,
              "split_type":"FloatFeature"
            },
            {
              "border":303,
              "float_feature_index":14,
              "split_index":807,
              "split_type":"FloatFeature"
            },
            {
              "border":10368,
              "float_feature_index":0,
              "split_index":47,
              "split_type":"FloatFeature"
            },
            {
              "border":4999999913984,
              "float_feature_index":2,
              "split_index":160,
              "split_type":"FloatFeature"
            }
          ]
      },
      {
        "leaf_values":
          [
            0.033124048434272801,
            0.012600285867642644,
            0.18148992609713988,
            0,
            0.036551365471785273,
            -0.00042125487933854737,
            -0.0081713325468377417,
            0.056723007573794643,
            -0.051612052634245627,
            -0.023850910027265596,
            -0.10001498134341555,
            -0.085006607357196437,
            -0.054036343826675451,
            -0.087912935392053929,
            0.0082154683005120632,
            0.16997563999529394
          ],
        "leaf_weights":
          [
            1095.6528895497322,
            4.9494114518165588,
            54.68469774723053,
            0,
            933.37290018796921,
            11.898822903633118,
            66.583520650863647,
            5.8482343554496765,
            398.72351533174515,
            2,
            416.16704130172729,
            3,
            750.3070359826088,
            12.898822903633118,
            919.22113454341888,
            47.190583229064941
          ],
        "splits":
          [
            {
              "border":21.5,
              "float_feature_index":8,
              "split_index":562,
              "split_type":"FloatFeature"
            },
            {
              "border":0.40052902698516846,
              "float_feature_index":6,
              "split_index":455,
              "split_type":"FloatFeature"
            },
            {
              "border":0.00041848557884804904,
              "float_feature_index":17,
              "split_index":935,
              "split_type":"FloatFeature"
            },
            {
              "border":0.042187996208667755,
              "float_feature_index":4,
              "split_index":262,
              "split_type":"FloatFeature"
            }
          ]
      },
      {
        "leaf_values":
          [
            0.012802715603238857,
            -0.059318709512949493,
            0.090856332952761451,
            0.10569709487033685,
            0,
            0.043063435631513332,
            0,
            0.048206642562792237,
            0.042518541103696871,
            -0.14502019206988592,
            -0.0087422474811941278,
            -0.29051580747113054,
            0,
            -0.072763128842573008,
            0,
            -0.40633070704211444
          ],
        "leaf_weights":
          [
            1131.7928842306137,
            228.78587484359741,
            39.392937421798706,
            14.797645807266235,
            0,
            750.7270200252533,
            0,
            49.241171777248383,
            1330.3258163332939,
            234.08940613269806,
            114.39293742179871,
            40,
            0,
            689.05409324169159,
            0,
            99.898822903633118
          ],
        "splits":
          [
            {
              "border":0.087638676166534424,
              "float_feature_index":4,
              "split_index":270,
              "split_type":"FloatFeature"
            },
            {
              "border":11964,
              "float_feature_index":13,
              "split_index":771,
              "split_type":"FloatFeature"
            },
            {
              "border":0.22571896016597748,
              "float_feature_index":4,
              "split_index":278,
              "split_type":"FloatFeature"
            },
            {
              "border":0.5,
              "float_feature_index":11,
              "split_index":658,
              "split_type":"FloatFeature"
            }
          ]
      },
      {
        "leaf_values":
          [
            -0.041777475972419542,
            -0.053998023195289957,
            0.16997939084488328,
            0.055865999326857339,
            0.004067293093495729,
            0.07828462837464624,
            0.10577439912601251,
            -0.08468452264933829,
            0.058371206220556651,
            0.3450909560260299,
            -0.17937530139097482,
            -0.077728730440985827,
            -0.4672690720466835,
            -0.084763088821065535,
            0,
            0.035199419333565102
          ],
        "leaf_weights":
          [
            1212.855243742466,
            213.38116645812988,
            35.595291614532471,
            191.02704662084579,
            1727.8199308514595,
            299.57174968719482,
            46.595291614532471,
            204.63410919904709,
            363.11645275354385,
            111.82469242811203,
            8,
            78.937640488147736,
            149.74705725908279,
            54.696468710899353,
            0,
            24.696468710899353
          ],
        "splits":
          [
            {
              "border":0.063036918640136719,
              "float_feature_index":18,
              "split_index":1042,
              "split_type":"FloatFeature"
            },
            {
              "border":2168974848,
              "float_feature_index":17,
              "split_index":979,
              "split_type":"FloatFeature"
            },
            {
              "border":0.5,
              "float_feature_index":11,
              "split_index":658,
              "split_type":"FloatFeature"
            },
            {
              "border":0.5,
              "float_feature_index":9,
              "split_index":586,
              "split_type":"FloatFeature"
            }
          ]
      },
      {
        "leaf_values":
          [
            0.04500190443137194,
            0,
            -0.0759061762235477,
            0.20416461580487807,
            -0.12127069367402819,
            0,
            -0.28987848088864054,
            -0.027134486527741822,
            0.0092743939675017772,
            0,
            -0.14375780821874259,
            0.3659315807156695,
            0.0090268370166499672,
            0,
            -0.34308859149802318,
            -0.2099223941148676
          ],
        "leaf_weights":
          [
            2064.6716699004173,
            0,
            186.68469774723053,
            130.43175500631332,
            573.24467647075653,
            0,
            73.696468710899353,
            119.1399946808815,
            1067.6764314770699,
            0,
            123.34234887361526,
            78.887051939964294,
            194.12822371721268,
            0,
            33.949411451816559,
            76.645880162715912
          ],
        "splits":
          [
            {
              "border":10029381632,
              "float_feature_index":7,
              "split_index":536,
              "split_type":"FloatFeature"
            },
            {
              "border":3712353024,
              "float_feature_index":7,
              "split_index":528,
              "split_type":"FloatFeature"
            },
            {
              "border":0.53438162803649902,
              "float_feature_index":20,
              "split_index":1209,
              "split_type":"FloatFeature"
            },
            {
              "border":2.3271551132202148,
              "float_feature_index":3,
              "split_index":187,
              "split_type":"FloatFeature"
            }
          ]
      },
      {
        "leaf_values":
          [
            -0.049868594867273866,
            0.15265303661653962,
            -0.023101389331495845,
            -0.049586493968725852,
            0.12051536161130263,
            0.012492416978357825,
            0.041743447398380082,
            -0.10470554719590984,
            0.032486337595274882,
            -0.039703671434604557,
            0,
            -0.021195600118653429,
            0.10397859984851017,
            -0.18220504547322317,
            0.13443096910470873,
            0.22957070845630745
          ],
        "leaf_weights":
          [
            3596.6634036302567,
            515.45053535699844,
            7.9494114518165588,
            1,
            187.68469774723053,
            34.595291614532471,
            4.9494114518165588,
            4.9494114518165588,
            143.03881758451462,
            33.595291614532471,
            0,
            1,
            109.08940613269806,
            49.291760325431824,
            13.747057259082794,
            19.494114518165588
          ],
        "splits":
          [
            {
              "border":0.097136497497558594,
              "float_feature_index":5,
              "split_index":383,
              "split_type":"FloatFeature"
            },
            {
              "border":561.5,
              "float_feature_index":9,
              "split_index":608,
              "split_type":"FloatFeature"
            },
            {
              "border":992.5,
              "float_feature_index":12,
              "split_index":692,
              "split_type":"FloatFeature"
            },
            {
              "border":14536,
              "float_feature_index":14,
              "split_index":860,
              "split_type":"FloatFeature"
            }
          ]
      },
      {
        "leaf_values":
          [
            0.030769588757657639,
            -0.17886071387700941,
            0.0075140352032412872,
            0.023010588859498065,
            -0.052662780920849875,
            -0.051048207733277076,
            -0.097751969434423519,
            -0.034495065821584923,
            0.014829060036927287,
            -0.084250787021813489,
            0.010324830825995533,
            0.020132498888192799,
            0.094997952791463655,
            -0.1682778920299538,
            0.03019089903231055,
            0.10727924813254554
          ],
        "leaf_weights":
          [
            863.77760857343674,
            247.88705193996429,
            736.89055663347244,
            239.38116645812988,
            2,
            1,
            10.949411451816559,
            1,
            930.47407728433609,
            198.12822371721268,
            1225.5517124533653,
            170.87528097629547,
            1.9494114518165588,
            4,
            65.241171777248383,
            23.392937421798706
          ],
        "splits":
          [
            {
              "border":422150016,
              "float_feature_index":19,
              "split_index":1132,
              "split_type":"FloatFeature"
            },
            {
              "border":461.5,
              "float_feature_index":14,
              "split_index":812,
              "split_type":"FloatFeature"
            },
            {
              "border":208,
              "float_feature_index":9,
              "split_index":604,
              "split_type":"FloatFeature"
            },
            {
              "border":0.062017999589443207,
              "float_feature_index":6,
              "split_index":433,
              "split_type":"FloatFeature"
            }
          ]
      },
      {
        "leaf_values":
          [
            0.010596611272878073,
            -0.21423577652503631,
            0.11033776979789982,
            -0.13540047333619026,
            0.13173183820278739,
            0.1870122361100976,
            -0.058139657133720338,
            0.081076180432212847,
            -0.088582458117108534,
            -0.24349295563153339,
            -0.023918910315028085,
            -0.041807317658461594,
            -0.025895583751914714,
            0.029909093696397469,
            -0.016231638928069541,
            0.12933671017234055
          ],
        "leaf_weights":
          [
            1751.6175766587257,
            954.01527565717697,
            30.645880162715912,
            35.797645807266235,
            215.36939549446106,
            324.6999734044075,
            2,
            6.8988229036331177,
            460.12822371721268,
            126.64588016271591,
            2,
            2,
            155.68469774723053,
            593.31054067611694,
            2,
            59.68469774723053
          ],
        "splits":
          [
            {
              "border":0.13879349827766418,
              "float_feature_index":6,
              "split_index":443,
              "split_type":"FloatFeature"
            },
            {
              "border":5774,
              "float_feature_index":12,
              "split_index":703,
              "split_type":"FloatFeature"
            },
            {
              "border":0.030961710959672928,
              "float_feature_index":5,
              "split_index":368,
              "split_type":"FloatFeature"
            },
            {
              "border":0.079878427088260651,
              "float_feature_index":19,
              "split_index":1118,
              "split_type":"FloatFeature"
            }
          ]
      },
      {
        "leaf_values":
          [
            -0.12539003823271136,
            0.22835813636018701,
            0.018133066304380781,
            -0.035208019161498127,
            0.040236070648189702,
            0.068086026952686243,
            0.010776267547272508,
            0.085102727105193607,
            0,
            0,
            0,
            0,
            -0.022376644179606126,
            0,
            0,
            0
          ],
        "leaf_weights":
          [
            1116.3458535671234,
            7.7976458072662354,
            1087.3611292243004,
            4.9494114518165588,
            1406.0493316650391,
            22.392937421798706,
            1068.7540666460991,
            7.8482343554496765,
            0,
            0,
            0,
            0,
            1,
            0,
            0,
            0
          ],
        "splits":
          [
            {
              "border":20114,
              "float_feature_index":12,
              "split_index":710,
              "split_type":"FloatFeature"
            },
            {
              "border":103923752,
              "float_feature_index":7,
              "split_index":509,
              "split_type":"FloatFeature"
            },
            {
              "border":0.0055361124686896801,
              "float_feature_index":20,
              "split_index":1185,
              "split_type":"FloatFeature"
            },
            {
              "border":775,
              "float_feature_index":8,
              "split_index":585,
              "split_type":"FloatFeature"
            }
          ]
      },
      {
        "leaf_values":
          [
            -0.17945518752802003,
            0,
            -0.031176325739285821,
            0,
            -0.086895992281333156,
            0.0066130637649636911,
            0.18264698229546195,
            0.053133581857766454,
            -0.39333897545369384,
            0,
            -0.07521038281219726,
            0,
            -0.17243394501822085,
            0.07397010063239326,
            0.17694044714513271,
            0.065818688460547031
          ],
        "leaf_weights":
          [
            38.949411451816559,
            0,
            21.898822903633118,
            0,
            791.86351001262665,
            891.03405600786209,
            87.1399946808815,
            62.089406132698059,
            52,
            0,
            34.848234355449677,
            0,
            1087.6105672717094,
            1378.695211827755,
            179.43175500631332,
            96.937640488147736
          ],
        "splits":
          [
            {
              "border":0.0044207852333784103,
              "float_feature_index":5,
              "split_index":343,
              "split_type":"FloatFeature"
            },
            {
              "border":12000000000,
              "float_feature_index":2,
              "split_index":151,
              "split_type":"FloatFeature"
            },
            {
              "border":3.7500001326407073e-07,
              "float_feature_index":5,
              "split_index":310,
              "split_type":"FloatFeature"
            },
            {
              "border":0.5,
              "float_feature_index":1,
              "split_index":75,
              "split_type":"FloatFeature"
            }
          ]
      },
      {
        "leaf_values":
          [
            0.12246837158765535,
            -0.043146908928248864,
            -0.032062644700028294,
            -0.28616469647848142,
            -0.24144260011075724,
            0.32455997023678357,
            -0.020463119073927182,
            0.0025412884581016855,
            -0.32644826896461543,
            0.028080002824842142,
            0.061268636444538359,
            0.044985886333598832,
            0.028406687574786912,
            0.59841120161978212,
            0.0023464994254367428,
            -0.0036058213901824436
          ],
        "leaf_weights":
          [
            63.392937421798706,
            638.15527033805847,
            2,
            20.848234355449677,
            45.291760325431824,
            57.68469774723053,
            2.9494114518165588,
            3.8988229036331177,
            357.17881226539612,
            3328.2469242811203,
            1.9494114518165588,
            91.887051939964294,
            67.330577909946442,
            34.887051939964294,
            4.8482343554496765,
            1.9494114518165588
          ],
        "splits":
          [
            {
              "border":4.9999999696126451e-09,
              "float_feature_index":4,
              "split_index":223,
              "split_type":"FloatFeature"
            },
            {
              "border":7.5,
              "float_feature_index":8,
              "split_index":554,
              "split_type":"FloatFeature"
            },
            {
              "border":13.920000076293945,
              "float_feature_index":5,
              "split_index":393,
              "split_type":"FloatFeature"
            },
            {
              "border":9999419,
              "float_feature_index":2,
              "split_index":85,
              "split_type":"FloatFeature"
            }
          ]
      },
      {
        "leaf_values":
          [
            -0.0073018211968015993,
            -0.051655365916671719,
            0,
            0.099545649126986088,
            -0.0068030845921655449,
            0.46011638817260364,
            -0.019910079591792442,
            0.33886683157236586,
            -0.21713209669159431,
            -0.0069124459234295157,
            -0.55767897444670655,
            0.029490423423597936,
            -0.0036339081535397464,
            0.0010334943573520076,
            -0.33029129466869611,
            -0.078819349678957928
          ],
        "leaf_weights":
          [
            3,
            61.747057259082794,
            0,
            48.696468710899353,
            1,
            7.7470572590827942,
            4,
            57.392937421798706,
            39,
            706.34585356712341,
            145,
            2943.5386846065521,
            2,
            64.494114518165588,
            42,
            596.53643679618835
          ],
        "splits":
          [
            {
              "border":0.5,
              "float_feature_index":15,
              "split_index":869,
              "split_type":"FloatFeature"
            },
            {
              "border":0.00026882707607001066,
              "float_feature_index":20,
              "split_index":1160,
              "split_type":"FloatFeature"
            },
            {
              "border":2373750016,
              "float_feature_index":19,
              "split_index":1133,
              "split_type":"FloatFeature"
            },
            {
              "border":0.00016453000716865063,
              "float_feature_index":6,
              "split_index":400,
              "split_type":"FloatFeature"
            }
          ]
      },
      {
        "leaf_values":
          [
            0.32472893982404555,
            0.35847281718691743,
            0.10141697376199771,
            0.15436445016311287,
            -0.15941867853589059,
            -0.13340701067076888,
            0.028838860461251597,
            0.025428704520241738,
            -0.19880668818730698,
            -0.039936346602350202,
            -0.35576507715114997,
            0.11196847113999006,
            0.19056226670166826,
            0.15241085162534029,
            -0.077292542845062012,
            0.11440926602226165
          ],
        "leaf_weights":
          [
            240.52116113901138,
            34.54470306634903,
            157.08940613269806,
            31.747057259082794,
            143.68469774723053,
            46.54470306634903,
            235.4199840426445,
            66.038817584514618,
            1397.1434993743896,
            603.11645275354385,
            265.59529161453247,
            42.747057259082794,
            461.23290550708771,
            173.17881226539612,
            527.14349937438965,
            296.75056195259094
          ],
        "splits":
          [
            {
              "border":7.5,
              "float_feature_index":12,
              "split_index":663,
              "split_type":"FloatFeature"
            },
            {
              "border":0.042515143752098083,
              "float_feature_index":19,
              "split_index":1112,
              "split_type":"FloatFeature"
            },
            {
              "border":0.010686020366847515,
              "float_feature_index":5,
              "split_index":353,
              "split_type":"FloatFeature"
            },
            {
              "border":0.0012175000738352537,
              "float_feature_index":4,
              "split_index":235,
              "split_type":"FloatFeature"
            }
          ]
      },
      {
        "leaf_values":
          [
            0.19999579651949928,
            -0.087088717963945725,
            0.29425169067877249,
            -0.1383419979295267,
            -0.43030981940128959,
            0.0006031507077498018,
            0.14176515920582308,
            0.13396945248970432,
            -0.042299228748033844,
            -0.2711088080491027,
            -0.13341235164768664,
            0.20802023721350943,
            0.12726874394433066,
            -0.14910853346708317,
            0.1939917787339078,
            -0.019117515081273229
          ],
        "leaf_weights":
          [
            273.47057259082794,
            165.29176032543182,
            76.1399946808815,
            59.797645807266235,
            34.949411451816559,
            104.29176032543182,
            10.797645807266235,
            48.54470306634903,
            1375.3340826034546,
            173.79764580726624,
            641.57174968719482,
            44.747057259082794,
            615.76583760976791,
            503.839968085289,
            329.05409324169159,
            265.10468178987503
          ],
        "splits":
          [
            {
              "border":0.11238390207290649,
              "float_feature_index":20,
              "split_index":1203,
              "split_type":"FloatFeature"
            },
            {
              "border":2509,
              "float_feature_index":14,
              "split_index":835,
              "split_type":"FloatFeature"
            },
            {
              "border":0.011402729898691177,
              "float_feature_index":5,
              "split_index":354,
              "split_type":"FloatFeature"
            },
            {
              "border":0.0031428351067006588,
              "float_feature_index":6,
              "split_index":413,
              "split_type":"FloatFeature"
            }
          ]
      },
      {
        "leaf_values":
          [
            0.069085703391785158,
            -0.065771267861810465,
            -0.13967161822680144,
            0.082437029020246286,
            0.02440027298606582,
            -0.33602247192818291,
